<?xml version="1.0"?>
<opencv_storage>
<stage11>
  <maxWeakCount>5</maxWeakCount>
  <stageThreshold>-8.7166494131088257e-01</stageThreshold>
  <weakClassifiers>
    <_>
      <internalNodes>
        0 -1 77936 -1.3329784269444644e-04</internalNodes>
      <leafValues>
        4.0133780241012573e-01 -7.0291775465011597e-01</leafValues></_>
    <_>
      <internalNodes>
        0 -1 75441 1.2768277525901794e-01</internalNodes>
      <leafValues>
        -9.4627511501312256e-01 2.7662605047225952e-01</leafValues></_>
    <_>
      <internalNodes>
        0 -1 118677 2.8909528627991676e-03</internalNodes>
      <leafValues>
        -3.7858554720878601e-01 7.7893424034118652e-01</leafValues></_>
    <_>
      <internalNodes>
        0 -1 162119 -1.2557939044199884e-05</internalNodes>
      <leafValues>
        -8.0818599462509155e-01 3.3801990747451782e-01</leafValues></_>
    <_>
      <internalNodes>
        0 -1 46081 4.3078754097223282e-03</internalNodes>
      <leafValues>
        -3.6285722255706787e-01 8.0941194295883179e-01</leafValues></_></weakClassifiers></stage11>
</opencv_storage>
